#ifndef NN_PARAMS_H
#define NN_PARAMS_H

const uint8_t buff_size = 36;
const uint8_t input_size  = 12;
const uint8_t hidden_size = 12;  
const uint8_t num_labels = 4;

const float weight1[hidden_size][input_size+1] = {
{-0.126990, -3.235777, -1.737795,  0.326781,  0.796449, -3.541750,  1.775526,  3.343614,  1.513573, -3.957274,  1.615895,  2.513016, -1.019140},
{-2.342264, -1.191793, -3.131617,  2.551423,  0.608622,  3.189899,  0.975012, -0.011762,  2.307468,  0.847989,  0.351746, -1.679505, -1.840574},
{-3.519746,  1.191690, -1.115746, -1.789990, -2.726530,  1.052053, -2.392016, -2.737919,  4.435020,  3.880583, -0.940116, -4.062033, -0.226875},
{ 1.106455,  1.474122,  1.931272,  1.386899, -2.091729, -1.515249, -1.692316,  0.324805,  0.572046,  4.062392, -0.439502,  4.137766,  0.996768},
{-1.052872,  0.057958,  3.402320,  0.819514,  0.945338,  0.401357,  3.438589, -3.262099, -8.128414, -4.922560,  2.251396, -6.011086, -2.020907},
{-1.596230,  0.207880, -1.146981, -1.726966, -0.664766,  1.362036,  0.535329, -0.113468,  2.475373, -0.404525,  0.054881, -4.848844, -1.411325},
{-0.655699, -0.644888,  1.700945, -2.521784,  0.193644,  3.810368, -1.657513, -0.838206,  2.151081, -0.548291,  2.578042, -3.335749,  0.117163},
{ 3.142871, -2.400778,  5.528435,  2.645312,  3.326329, -0.141099,  0.256537, -3.343624, -0.220211,  1.248211,  0.049862,  5.093738,  1.907905},
{ 1.240165, -0.397546,  0.077117, -0.633308,  1.095421,  0.864247, -4.302992,  1.669993,  1.516034, -1.980459, -2.561844,  3.892864,  0.440244},
{ 1.082883, -0.672381, -1.177385,  0.275901,  0.201015, -2.490365,  5.298961, -0.493506, -0.027995, -9.487891,  1.175314, -1.757481,  0.254474},
{ 3.288768,  1.629014,  0.536865,  2.773019,  0.758497,  0.198235, -4.427115,  3.272737,  4.254650, -1.147851, -1.467142,  5.296440, -1.355584},
{-3.257678, -0.358518,  0.424020,  0.190583,  1.572945, -1.144414,  3.701064, -0.366925, -0.352798,  5.153275,  1.070011,  0.522669,  5.648409}
};
const float weight2[num_labels][hidden_size+1] = {
{-3.732649, -2.887953,  0.751430,  4.798081, -3.090068, -1.640208,  4.079436, -3.105840, -3.625296, -2.287207, -4.329928, -1.046078,  6.478751},
{ 1.049190,  4.269530, -4.351020, -0.672849, -2.799519, -2.522203, -2.268584, -4.281232, -0.964513,  5.144593, -7.083356, -5.194653,  4.208337},
{ 2.339145,  1.974670, -6.882707,  4.267840, -4.435024, -8.893410,  2.869602,  2.111874, -4.693673,  2.737769,  2.139566, -7.053525, -1.779173},
{-10.055304, -3.892958,  7.483308, -6.554368,  6.448362,  9.136351, -7.088023,  4.236808,  4.598507, -5.338389,  6.513741,  8.818482, -6.055781}
};
const float normal_mean[input_size] = 
{6035.1,  15125.8,  16055.5,  -1472.8,  -3703.4,  -149.1,  2589.9,  8078.5,  7813.6,  1741.5,  4962.6,  4296.8};
const float normal_std[input_size] = 
{3286.5,  7693.4,  10185.2,  3054.9,  12299.7,  8314.9,  2347.2,  7219.6,  7936.9,   823.5,  3474.2,  2207.7};

float inputs[input_size] = {};
float hidden_activ[hidden_size] = {};
float output_activ[num_labels] = {};

#endif