#ifndef END_PARAMS_H
#define END_PARAMS_H

const uint8_t buff_size_end = 10;
const uint8_t input_size_end  = 30;
const uint8_t hidden_size_end = 15;  
const uint8_t output_size_end = 2;

const float weight1_end[hidden_size_end][input_size_end+1] = {
{-0.871159,  0.952173, -0.683141, -1.711313,  1.065309, -0.127274,  0.840219,  1.380977, -0.030058, -0.077371,  0.574943, -1.420682, -0.147190,  0.564913, -0.332243, -0.257441, -0.234666, -2.548051, -0.777394,  0.152873,  0.118093,  1.020135, -1.000847, -0.492037,  2.222373, -0.271984, -0.848702,  0.186008, -0.967879,  1.703557,  0.723419},
{-0.185402, -1.540823, -0.942418, -0.755753, -0.041745,  1.534206, -0.593430,  0.564260,  0.936127,  1.094836, -0.646561, -0.897350,  0.038931, -0.244193, -2.045026, -0.533343,  0.906060,  0.079389, -0.354914, -0.130230,  0.117190,  0.736774, -2.820207, -1.024512,  0.604048,  1.203016, -0.412283,  1.501162, -0.755305, -1.754013, -3.853139},
{-4.925116,  0.181737, -1.580299,  0.716174,  1.363686, -2.274427, -1.102874,  0.297757,  0.499190, -0.873142, -0.461940, -0.308405, -1.818461,  1.294095, -0.265869, -2.793464, -0.968146, -0.240415, -0.735751,  0.821219,  0.241482, -1.167399, -0.546859, -1.464554, -0.753908,  0.845017, -0.439674, -0.806240,  0.153835, -0.395483, -0.456332},
{-1.783415,  1.640683, -2.200734, -0.410205,  0.532506,  0.698324,  0.144849,  0.999621, -1.186591, -0.452569, -0.128200,  1.774931,  1.135584,  0.745545, -0.534597, -0.466460,  0.015230,  1.438269,  0.563876, -0.042850, -1.085717,  0.916294,  1.284781, -0.792510,  0.508453,  2.109104,  0.148756, -0.832972,  1.217341, -0.537067,  0.683729},
{ 5.079635,  1.721637, -0.913844, -1.259055, -0.118114, -2.753443, -1.084086, -1.899277,  1.011878, -2.622362,  0.539959, -1.154464, -1.075620, -0.545641,  0.605793, -1.013010,  0.728220,  0.371747, -0.614400,  0.779036,  0.371190, -1.317130, -0.039904, -0.316548, -0.498718, -1.769296,  0.492765, -0.525189,  0.743235,  0.560712,  0.085183},
{-1.136821,  0.214424, -0.794098,  0.410015, -0.457807, -0.783340,  0.434790, -0.925815, -1.204876, -0.025166, -1.086614, -0.609985, -0.540523,  0.274284,  0.079652, -0.270647, -0.132729, -0.060836,  0.083677,  0.571741, -0.046764, -0.111198,  0.381597, -0.430415, -0.126973, -0.614744, -0.318535, -0.504582,  0.154033, -0.611862,  0.468969},
{-1.619101, -0.887253,  0.465316, -1.171361, -0.326339, -0.298567, -2.036256,  0.456076,  2.815332, -0.944702,  0.023599, -0.183222, -1.189902,  0.195846, -0.757305, -1.650367,  0.321937, -0.417643,  1.455709,  1.410935, -1.376642, -0.790788,  1.555263, -0.323601, -0.761556,  0.124462, -0.398485,  0.257557, -1.382363, -1.217732,  0.519737},
{ 6.985546, -1.044202, -2.138020, -2.397132,  0.253163, -2.605418, -3.498575,  0.409885,  1.697352, -2.545342,  0.034467, -1.545598, -1.324045,  0.600607,  0.356329, -0.811251, -0.903687,  1.174791, -1.639016, -0.577940, -0.113538, -0.209810, -0.197276,  0.476083,  0.546054,  0.247296,  0.773372, -1.067621, -0.060385, -0.635198, -1.266837},
{ 0.812161, -1.298402,  0.437357,  0.850282, -0.233627, -0.806377,  0.556915,  1.256435,  1.749733,  1.122823,  0.502068, -1.162547,  1.690561, -1.086460,  0.409511,  2.855748, -0.825694,  0.030553, -0.930550,  0.067606,  0.417059, -1.602970,  0.350504,  0.807543, -1.637947, -0.317571, -0.176337, -2.379288,  0.113778, -0.040206, -3.114007},
{ 0.154144,  0.779613,  1.764413,  2.113037,  1.836392,  2.166271,  1.985605,  1.998287,  1.413051,  1.321940, -0.401908,  0.838192, -0.538984, -1.661165, -0.997803, -0.972780, -0.668044, -2.234891, -1.141305, -0.888888, -0.858190, -0.694224,  1.610782, -0.650350, -2.742005,  0.206975, -0.795960,  0.175934,  0.024769, -0.507505, -2.368692},
{-2.134694,  0.317602,  2.218464, -1.295747,  0.559819,  0.284089,  0.175761, -1.448843,  1.813500,  0.369166,  0.579934,  0.014789, -1.377651,  0.019842, -0.588225, -0.009453, -0.683691, -1.706848, -0.272087,  1.314790,  0.179562, -0.663344,  0.394116,  0.528253,  0.050167,  0.929381,  1.075489,  3.455710,  0.026902,  0.499614,  2.790159},
{-0.827350, -1.501889, -4.643358, -2.703723,  0.379531, -0.124156, -3.217661, -0.552130,  1.736216, -1.078717, -0.620672,  0.102053,  2.161897,  0.351668,  0.920479,  0.943490, -0.007491,  1.059719,  1.276469, -0.299655, -1.188988,  0.339607,  0.181078, -0.187652,  0.571581,  1.164295, -0.433435, -0.160164, -0.788942, -0.416339, -1.759018},
{-1.508904,  1.445095, -0.933555,  0.876180, -1.169801, -1.067592,  1.288811, -0.097929, -1.388912,  0.683591,  0.615707, -0.475273, -0.611324,  0.557718, -0.590560, -0.469906, -0.776619, -1.056620, -1.862396,  0.738523,  0.200108, -0.190394, -0.846529,  0.267035, -0.421327,  1.760960,  0.167169,  0.145191,  0.923573, -0.845881,  0.407301},
{-2.779550,  0.539724,  1.658539,  1.209081,  0.483702, -2.276181, -0.467409,  0.610792, -1.240877, -1.205520,  0.212081,  0.203255,  1.504719,  0.733608,  0.757034, -1.960548,  0.210227, -0.741726,  0.203005, -0.330114, -0.847345, -0.555145,  0.120731,  0.508369,  1.317449, -0.317811, -1.079687, -1.706455,  0.603346,  0.960061, -0.290631},
{ 2.912614,  1.314238,  1.678426, -0.554400,  0.978736, -0.678819, -1.898843, -1.596831, -0.555507, -0.093984, -0.201834, -2.493012,  1.069104, -0.315132, -0.044825, -0.478741, -1.616865, -1.763831, -0.257216,  1.597952, -1.186499, -0.030226,  1.784943, -0.746706,  1.199286,  1.006290,  2.939456,  0.852063, -0.217545, -0.886342,  0.319436}
};
const float weight2_end[output_size_end][hidden_size_end+1] = {
{ 2.936574, -3.665551,  6.062037,  5.649406,  4.032214, -5.848739, -1.669088,  4.666744, -6.434215,  4.911553, -6.030632, -5.166497, -6.760886, -3.653567,  4.267980,  5.957965},
{-2.936589,  3.665580, -6.062029, -5.649425, -4.032195,  5.848715,  1.669157, -4.666760,  6.434204, -4.911568,  6.030628,  5.166512,  6.760873,  3.653573, -4.268001, -5.957940}
};
const float normal_mean_end[input_size_end] = 
{2707.3,  8458.3,  10118.6,  2447.3,  7425.8,  9699.6,  2427.3,  6610.5,  9444.6,  2251.3,  5717.7,  8975.3,  2211.6,  4740.1,  8673.6,  2115.3,  4232.8,  8836.3,  2085.6,  3379.5,  8820.3,  1984.4,  2817.9,  8188.2,  1903.0,  2585.8,  7798.2,  1774.3,  2527.1,  7579.6};
const float normal_std_end[input_size_end] = 
{3267.3,  9159.3,  8369.7,  3101.1,  9004.6,  8803.9,  3083.1,  9168.9,  8994.4,  2804.5,  9078.8,  9239.3,  2727.8,  9110.8,  9301.9,  2678.3,  9568.7,  9637.6,  2938.4,  10710.7,  9742.2,  2935.7,  11762.0,  9228.0,  3094.1,  12605.6,  8656.2,  3062.2,  12802.8,  8008.5};

float inputs_end[input_size_end] = {};
float hidden_activ_end[hidden_size_end] = {};
float output_activ_end[output_size_end] = {};

#endif