#ifndef START_PARAMS_H
#define START_PARAMS_H

const uint8_t buff_size_start = 12;
const uint8_t input_size_start  = 36;
const uint8_t hidden_size_start = 18;  
const uint8_t output_size_start = 2;

const float weight1_start[hidden_size_start][input_size_start+1] = {
{-2.329819, -0.351512, -1.030872, -0.259046,  0.006386, -0.447848, -0.302465, -0.454020, -0.168957, -0.671096,  0.031136,  0.014351,  0.176527,  0.492250,  0.199050, -0.697879, -0.311425,  0.580040, -0.323085, -1.176529,  0.302666, -0.031151, -0.587471,  0.213306, -0.247251,  0.250441,  0.429849, -0.442902, -0.654041,  0.514724, -0.655583, -0.303125,  0.377371, -0.985127,  0.588415,  0.782347, -1.218252},
{-0.493553,  0.201477, -0.550216,  0.141425, -2.139019,  0.234972, -0.061193, -1.606055, -0.383156, -0.226863,  0.662985,  0.124699, -0.229992,  1.358178,  2.709434,  0.738186, -3.469433,  0.682836,  1.389683,  1.508937, -0.434314,  1.666876, -1.089251,  1.989249,  1.809699,  0.668803,  2.878974, -0.875687,  0.183224,  0.283652,  0.314045, -1.789797,  0.160512,  0.357011, -0.649719,  1.328681, -0.573125},
{-0.636862,  1.033532, -0.857978,  2.132856,  0.392782, -0.695414,  0.020903, -0.307833, -0.667315, -0.895214,  1.810303,  0.095169, -0.161032,  2.090862, -1.711200, -1.033360,  4.701499, -1.308848, -0.557638, -0.915916,  0.382239,  0.346871,  1.152608, -1.561947,  0.343672, -0.192456,  0.964098, -0.067678,  1.746246,  0.698211,  0.682384,  0.807428, -0.062187, -0.971671,  1.634870,  0.880407, -1.003757},
{ 1.326985, -0.073082,  0.432957,  0.643814, -1.788818, -0.003530,  0.576390, -1.126498,  0.300203,  0.170498, -0.381576,  1.243796, -0.991594,  1.090837,  0.336208, -0.732572, -1.051634,  0.991185, -0.170416,  0.833795,  1.896163,  0.779911,  1.023553,  0.365149,  0.194730,  0.267877,  0.793404,  0.358289, -1.226903,  0.571831,  0.346013, -0.707608,  0.270370,  0.411869,  0.780168, -0.228969,  0.055737},
{-8.515490, -0.158021, -2.203369,  0.446350, -0.401493, -0.796847,  1.289886,  1.436568, -0.300058,  1.080469, -0.210893, -0.038604,  0.007443,  0.228989, -0.125658,  0.450686, -1.068044,  0.796806,  0.167116, -0.174407,  1.204720,  0.421736,  0.181337, -0.294507,  2.825055,  1.144161,  0.305690,  2.606310, -0.496794,  0.933197,  0.720092,  0.520354, -0.361099,  2.729032, -0.723302,  0.574168,  0.220831},
{-3.412446, -1.886662,  0.458488,  0.383730, -1.578602, -0.727011,  0.341071, -0.418019,  0.126933, -0.847617, -1.411845, -1.812334, -0.177163,  0.563938, -0.135298, -1.286863,  0.253167, -0.496376, -0.660801, -0.220429,  1.554055, -0.266614, -0.835055, -0.835993, -1.268650, -0.846312,  1.689200, -0.674687,  0.200626,  1.360404, -1.426988, -0.854995, -2.244163, -1.320900, -0.744885, -2.116302, -0.930505},
{-1.073156, -0.670173, -0.249054,  2.571313, -0.328387,  1.322214,  0.299996, -0.631169,  1.424032,  1.145567, -0.619513, -0.991041,  0.114614,  0.265670, -0.994342,  0.261786, -1.339412, -1.131011,  1.290846, -2.909293, -1.415650, -0.645815, -1.645026,  0.275774,  0.957576,  0.818323, -0.189488,  0.644000,  1.608772,  0.073086, -0.570097,  0.916320,  0.449423, -1.019971, -0.049723, -0.039855, -0.938004},
{ 1.826328,  1.906409,  0.656132,  3.858481, -1.429448,  1.642629,  2.278781,  0.065604, -0.263443,  1.864207,  0.906820,  1.074940,  1.414814, -1.170474,  1.388473,  0.921847, -0.837660,  1.766540, -0.267876,  2.843261,  0.283329, -1.207051,  0.107368,  0.168468, -0.893388, -0.669798, -0.104663, -0.992393, -0.190162, -1.970024, -1.517664, -0.226634, -0.999732, -0.413623, -0.602715, -1.515486,  0.053603},
{-4.149806, -1.184426, -0.736322,  0.814621, -0.867567,  1.013869, -1.453724,  0.466497,  1.570150,  0.633281, -0.599884,  1.070056, -2.119968, -0.277095,  0.839218, -0.488202,  1.052780, -0.569043,  0.627268, -2.429633,  1.625560,  1.375211,  2.437916, -1.162919,  0.555703,  0.238954, -0.093731, -0.488270, -0.653167,  0.454739,  0.945163,  0.780387,  2.601683,  0.957528,  0.307500,  2.837152,  1.113546},
{ 3.414801,  1.598773, -0.256430,  1.388857,  1.449443,  0.846648,  1.947122,  1.002474, -0.015643, -0.651544,  0.918914,  1.606693,  0.115568, -1.155413,  1.259218, -0.876640,  1.753628,  0.987001, -0.133506,  2.272430, -0.683738,  0.485615,  0.499428,  1.123494, -0.821123,  0.070155,  0.992011, -0.713267,  0.269889, -1.818292, -1.166182, -0.929876, -0.511667,  1.715053,  0.821966, -1.038943,  1.228995},
{ 1.748555,  0.798488,  1.877789, -0.033566, -0.524280,  1.253090,  0.358386, -0.850439,  0.256165, -0.146958, -0.867642,  0.293474,  0.815894, -0.099639, -0.304814,  0.478858,  0.011607, -0.268558,  0.242357,  1.262212, -0.503045, -0.548789,  0.213594, -0.596840,  0.527267, -0.779002,  0.537380,  0.209356, -0.175286,  0.127000,  0.300425,  1.359783, -0.360922,  0.316210,  1.584545, -0.599084, -0.299581},
{ 0.497281,  0.465016,  0.276513, -0.172156, -0.415658,  1.699678,  0.277225,  0.812266,  0.696398, -0.476116, -0.736229,  0.243403, -0.156763, -1.755748,  1.216943,  1.137309, -0.132305,  1.075947,  0.687262,  1.466751,  1.065493,  0.273589, -0.882813,  0.495088,  0.801655,  1.126179, -0.391052,  0.680125, -0.244408, -0.010330,  0.142655,  0.229684, -0.997260,  0.476254, -2.079794, -1.350554,  2.625366},
{-1.015986,  1.429641, -0.015604, -1.649547,  0.512076,  0.799724, -0.521059, -0.356895, -0.101521, -0.732870,  0.788005,  0.025518, -0.449160, -0.711441,  0.452009, -0.753855, -0.479792,  0.087140, -1.451267, -0.073872, -0.721299, -1.090163, -0.561048, -0.151629, -0.502288, -0.210486,  0.016602,  0.215906, -0.540761,  0.839862,  0.683988, -2.361901, -0.041464,  2.365162,  0.132319,  0.257363,  2.079501},
{-1.141285, -0.042900, -2.441323,  0.424761,  0.154317, -0.257700,  0.122671, -0.741572, -1.320260, -1.292283, -0.184844, -0.195478, -0.753354, -1.061477, -0.798767, -1.935641,  0.625662, -0.043210, -1.052516, -1.700206, -1.145897,  0.037270, -1.026452, -0.478686,  0.198169, -0.690842, -0.033165, -0.363369, -0.744222,  1.376621,  0.054430,  0.247554,  0.369739, -0.890673,  1.054855,  2.643795, -1.434296},
{-0.673945, -1.138819, -0.517713, -0.042118, -0.051680,  0.417631, -0.442021, -0.475150,  0.048116, -0.358287,  0.224203, -0.813955, -0.061208,  0.933885, -0.291621,  0.099109, -0.241313,  0.638828, -0.888647,  0.403737, -0.014782, -1.504361, -0.205133,  0.326618,  0.223541,  1.918108,  1.339360,  0.158679,  2.238035,  0.668662, -0.188026,  0.939162,  0.205426,  0.871370,  0.296348, -0.935958,  1.250215},
{-7.135420, -0.042021, -0.751882,  0.422385,  0.540320, -1.241536, -0.547790, -0.128943,  0.037624,  1.024871, -0.901043,  0.162425, -1.108941,  0.542707, -0.476791,  1.299655,  1.075927,  0.425475,  1.964953, -1.171654,  1.490847,  4.015296,  0.779963,  0.383430,  3.696029, -0.051174,  0.432118,  2.963374,  0.718371, -0.481673,  0.905255, -0.674466,  1.663287, -1.189528, -1.030914,  1.523844, -2.598757},
{ 2.607501,  0.890304,  1.896431, -0.912927,  0.415409,  1.521586,  0.986490, -0.096118,  0.411353,  0.330572, -0.269893, -0.121234,  0.613509, -0.316310, -0.413487, -0.096779, -0.740924, -0.846259,  0.235295,  0.202777,  1.180653,  1.082370,  0.695736,  0.274854,  0.124020, -0.790986,  0.795405,  0.345080, -0.794019,  0.385380,  0.298775, -0.312904,  1.417199,  0.020095,  0.482888,  0.801692, -0.152788},
{ 2.864355, -0.517619,  1.330109, -1.522227,  0.678648,  0.345360, -0.473515, -0.371554, -0.439529, -0.831836,  0.648438, -0.072467,  0.526157, -0.016989, -0.320533, -0.152727,  0.138675, -1.075858,  0.089134,  0.594753, -0.918633, -0.860339, -0.420851, -0.299601, -1.042204, -0.162839, -0.654351, -1.502006, -0.041812, -0.134077, -0.352302,  0.026332,  0.251429, -0.723687, -0.145718, -0.528344,  0.315077}
};
const float weight2_start[output_size_start][hidden_size_start+1] = {
{-0.094521,  2.811633, -6.251392, -5.020294,  3.517609,  5.550733, -6.352665, -5.341398,  4.694639, -5.473873, -5.802006,  2.975500, -5.111803,  4.171399,  4.863162,  3.560072,  7.604539,  3.278248, -3.575672},
{ 0.071102, -2.814374,  6.251514,  5.022680, -3.513359, -5.545816,  6.353519,  5.345771, -4.692234,  5.473674,  5.803262, -2.974695,  5.114124, -4.170358, -4.860109, -3.559901, -7.600487, -3.275911,  3.587418}
};
const float normal_mean_start[input_size_start] = 
{1697.9,  3247.5,  8636.9,  1793.7,  3724.7,  8878.9,  1952.3,  4412.4,  9043.1,  2139.2,  4797.4,  9395.3,  2057.7,  5002.8,  9490.0,  2170.3,  5208.3,  9364.3,  2150.8,  5627.2,  9073.1,  2202.4,  5979.9,  9066.8,  2315.8,  6537.0,  9041.5,  2306.0,  7000.7,  9037.1,  2325.4,  7480.0,  8893.8,  2460.3,  7823.5,  8621.2};
const float normal_std_start[input_size_start] = 
{3033.1,  11300.3,  8642.6,  2953.0,  11118.2,  8848.9,  3006.9,  10694.5,  9221.4,  3124.7,  10379.3,  9589.0,  3058.4,  9890.6,  9746.9,  2936.7,  9517.6,  9817.1,  2963.0,  9194.1,  9796.1,  3119.6,  8962.8,  9710.5,  2910.1,  8827.5,  9418.1,  3112.8,  9020.4,  9221.1,  3161.7,  9089.8,  9035.8,  3039.2,  9126.2,  8790.2};

float inputs_start[input_size_start] = {};
float hidden_activ_start[hidden_size_start] = {};
float output_activ_start[output_size_start] = {};

#endif